digraph Tree {
node [shape=box, style="filled, rounded", color="black", fontname=helvetica] ;
edge [fontname=helvetica] ;
0 [label="Neurons <= 231.0\ngini = 0.405\nsamples = 4214\nvalue = [1187, 3027]\nclass = NM", fillcolor="#87c3ef"] ;
1 [label="Columns Categorical <= 7.5\ngini = 0.332\nsamples = 3805\nvalue = [800, 3005]\nclass = NM", fillcolor="#6eb7ec"] ;
0 -> 1 [labeldistance=2.5, labelangle=45, headlabel="True"] ;
2 [label="Neurons <= 17.0\ngini = 0.496\nsamples = 1678\nvalue = [768, 910]\nclass = NM", fillcolor="#e0f0fb"] ;
1 -> 2 ;
3 [label="gini = 0.457\nsamples = 921\nvalue = [325, 596]\nclass = NM", fillcolor="#a5d2f3"] ;
2 -> 3 ;
4 [label="gini = 0.485\nsamples = 757\nvalue = [443, 314]\nclass = MA", fillcolor="#f7dac5"] ;
2 -> 4 ;
5 [label="Columns Categorical <= 55.5\ngini = 0.03\nsamples = 2127\nvalue = [32, 2095]\nclass = NM", fillcolor="#3c9ee5"] ;
1 -> 5 ;
6 [label="gini = 0.011\nsamples = 1680\nvalue = [9, 1671]\nclass = NM", fillcolor="#3a9ee5"] ;
5 -> 6 ;
7 [label="gini = 0.098\nsamples = 447\nvalue = [23, 424]\nclass = NM", fillcolor="#44a2e6"] ;
5 -> 7 ;
8 [label="fact_pred <= 0.994\ngini = 0.102\nsamples = 409\nvalue = [387, 22]\nclass = MA", fillcolor="#e68844"] ;
0 -> 8 [labeldistance=2.5, labelangle=-45, headlabel="False"] ;
9 [label="fact_pred <= 0.993\ngini = 0.36\nsamples = 34\nvalue = [26, 8]\nclass = MA", fillcolor="#eda876"] ;
8 -> 9 ;
10 [label="gini = 0.305\nsamples = 32\nvalue = [26, 6]\nclass = MA", fillcolor="#eb9e67"] ;
9 -> 10 ;
11 [label="gini = 0.0\nsamples = 2\nvalue = [0, 2]\nclass = NM", fillcolor="#399de5"] ;
9 -> 11 ;
12 [label="AUC (test) <= 0.995\ngini = 0.072\nsamples = 375\nvalue = [361, 14]\nclass = MA", fillcolor="#e68641"] ;
8 -> 12 ;
13 [label="gini = 0.146\nsamples = 176\nvalue = [162, 14]\nclass = MA", fillcolor="#e78c4a"] ;
12 -> 13 ;
14 [label="gini = 0.0\nsamples = 199\nvalue = [199, 0]\nclass = MA", fillcolor="#e58139"] ;
12 -> 14 ;
}